digraph Tree {
node [shape=box] ;
0 [label="hosp_yn_Yes <= 0.5\ngini = 0.068\nsamples = 6960\nvalue = [6716, 244]"] ;
1 [label="age_group_80+ Years <= 0.5\ngini = 0.034\nsamples = 6480\nvalue = [6369, 111]"] ;
0 -> 1 [labeldistance=2.5, labelangle=45, headlabel="True"] ;
2 [label="age_group_70 - 79 Years <= 0.5\ngini = 0.018\nsamples = 6247\nvalue = [6191, 56]"] ;
1 -> 2 ;
3 [label="age_group_60 - 69 Years <= 0.5\ngini = 0.01\nsamples = 5918\nvalue = [5888, 30]"] ;
2 -> 3 ;
4 [label="age_group_50 - 59 Years <= 0.5\ngini = 0.006\nsamples = 5294\nvalue = [5278, 16]"] ;
3 -> 4 ;
5 [label="hosp_yn_Unknown <= 0.5\ngini = 0.003\nsamples = 4369\nvalue = [4362, 7]"] ;
4 -> 5 ;
6 [label="age_group_20 - 29 Years <= 0.5\ngini = 0.002\nsamples = 2490\nvalue = [2488, 2]"] ;
5 -> 6 ;
7 [label="age_group_40 - 49 Years <= 0.5\ngini = 0.002\nsamples = 1790\nvalue = [1788, 2]"] ;
6 -> 7 ;
8 [label="age_group_10 - 19 Years <= 0.5\ngini = 0.003\nsamples = 1239\nvalue = [1237, 2]"] ;
7 -> 8 ;
9 [label="age_group_30 - 39 Years <= 0.5\ngini = 0.005\nsamples = 805\nvalue = [803, 2]"] ;
8 -> 9 ;
10 [label="gini = 0.01\nsamples = 200\nvalue = [199, 1]"] ;
9 -> 10 ;
11 [label="gini = 0.003\nsamples = 605\nvalue = [604, 1]"] ;
9 -> 11 ;
12 [label="gini = 0.0\nsamples = 434\nvalue = [434, 0]"] ;
8 -> 12 ;
13 [label="gini = 0.0\nsamples = 551\nvalue = [551, 0]"] ;
7 -> 13 ;
14 [label="gini = 0.0\nsamples = 700\nvalue = [700, 0]"] ;
6 -> 14 ;
15 [label="icu_yn_Unknown <= 0.5\ngini = 0.005\nsamples = 1879\nvalue = [1874, 5]"] ;
5 -> 15 ;
16 [label="age_group_20 - 29 Years <= 0.5\ngini = 0.245\nsamples = 7\nvalue = [6, 1]"] ;
15 -> 16 ;
17 [label="gini = 0.0\nsamples = 6\nvalue = [6, 0]"] ;
16 -> 17 ;
18 [label="gini = 0.0\nsamples = 1\nvalue = [0, 1]"] ;
16 -> 18 ;
19 [label="medcond_yn_Unknown <= 0.5\ngini = 0.004\nsamples = 1872\nvalue = [1868, 4]"] ;
15 -> 19 ;
20 [label="age_group_30 - 39 Years <= 0.5\ngini = 0.016\nsamples = 128\nvalue = [127, 1]"] ;
19 -> 20 ;
21 [label="gini = 0.0\nsamples = 91\nvalue = [91, 0]"] ;
20 -> 21 ;
22 [label="medcond_yn_Yes <= 0.5\ngini = 0.053\nsamples = 37\nvalue = [36, 1]"] ;
20 -> 22 ;
23 [label="gini = 0.059\nsamples = 33\nvalue = [32, 1]"] ;
22 -> 23 ;
24 [label="gini = 0.0\nsamples = 4\nvalue = [4, 0]"] ;
22 -> 24 ;
25 [label="age_group_10 - 19 Years <= 0.5\ngini = 0.003\nsamples = 1744\nvalue = [1741, 3]"] ;
19 -> 25 ;
26 [label="age_group_40 - 49 Years <= 0.5\ngini = 0.004\nsamples = 1498\nvalue = [1495, 3]"] ;
25 -> 26 ;
27 [label="gini = 0.004\nsamples = 1100\nvalue = [1098, 2]"] ;
26 -> 27 ;
28 [label="gini = 0.005\nsamples = 398\nvalue = [397, 1]"] ;
26 -> 28 ;
29 [label="gini = 0.0\nsamples = 246\nvalue = [246, 0]"] ;
25 -> 29 ;
30 [label="icu_yn_Unknown <= 0.5\ngini = 0.019\nsamples = 925\nvalue = [916, 9]"] ;
4 -> 30 ;
31 [label="medcond_yn_Unknown <= 0.5\ngini = 0.012\nsamples = 518\nvalue = [515, 3]"] ;
30 -> 31 ;
32 [label="gini = 0.0\nsamples = 123\nvalue = [123, 0]"] ;
31 -> 32 ;
33 [label="hosp_yn_Unknown <= 0.5\ngini = 0.015\nsamples = 395\nvalue = [392, 3]"] ;
31 -> 33 ;
34 [label="gini = 0.015\nsamples = 394\nvalue = [391, 3]"] ;
33 -> 34 ;
35 [label="gini = 0.0\nsamples = 1\nvalue = [1, 0]"] ;
33 -> 35 ;
36 [label="medcond_yn_Unknown <= 0.5\ngini = 0.029\nsamples = 407\nvalue = [401, 6]"] ;
30 -> 36 ;
37 [label="gini = 0.0\nsamples = 24\nvalue = [24, 0]"] ;
36 -> 37 ;
38 [label="gini = 0.031\nsamples = 383\nvalue = [377, 6]"] ;
36 -> 38 ;
39 [label="icu_yn_Unknown <= 0.5\ngini = 0.044\nsamples = 624\nvalue = [610, 14]"] ;
3 -> 39 ;
40 [label="medcond_yn_Unknown <= 0.5\ngini = 0.021\nsamples = 381\nvalue = [377, 4]"] ;
39 -> 40 ;
41 [label="gini = 0.0\nsamples = 120\nvalue = [120, 0]"] ;
40 -> 41 ;
42 [label="hosp_yn_Unknown <= 0.5\ngini = 0.03\nsamples = 261\nvalue = [257, 4]"] ;
40 -> 42 ;
43 [label="gini = 0.03\nsamples = 260\nvalue = [256, 4]"] ;
42 -> 43 ;
44 [label="gini = 0.0\nsamples = 1\nvalue = [1, 0]"] ;
42 -> 44 ;
45 [label="medcond_yn_Unknown <= 0.5\ngini = 0.079\nsamples = 243\nvalue = [233, 10]"] ;
39 -> 45 ;
46 [label="gini = 0.0\nsamples = 15\nvalue = [15, 0]"] ;
45 -> 46 ;
47 [label="gini = 0.084\nsamples = 228\nvalue = [218, 10]"] ;
45 -> 47 ;
48 [label="icu_yn_Unknown <= 0.5\ngini = 0.146\nsamples = 329\nvalue = [303, 26]"] ;
2 -> 48 ;
49 [label="medcond_yn_Unknown <= 0.5\ngini = 0.103\nsamples = 184\nvalue = [174, 10]"] ;
48 -> 49 ;
50 [label="medcond_yn_Yes <= 0.5\ngini = 0.183\nsamples = 49\nvalue = [44, 5]"] ;
49 -> 50 ;
51 [label="gini = 0.153\nsamples = 12\nvalue = [11, 1]"] ;
50 -> 51 ;
52 [label="gini = 0.193\nsamples = 37\nvalue = [33, 4]"] ;
50 -> 52 ;
53 [label="gini = 0.071\nsamples = 135\nvalue = [130, 5]"] ;
49 -> 53 ;
54 [label="medcond_yn_Yes <= 0.5\ngini = 0.196\nsamples = 145\nvalue = [129, 16]"] ;
48 -> 54 ;
55 [label="medcond_yn_Unknown <= 0.5\ngini = 0.191\nsamples = 140\nvalue = [125, 15]"] ;
54 -> 55 ;
56 [label="gini = 0.0\nsamples = 5\nvalue = [5, 0]"] ;
55 -> 56 ;
57 [label="gini = 0.198\nsamples = 135\nvalue = [120, 15]"] ;
55 -> 57 ;
58 [label="gini = 0.32\nsamples = 5\nvalue = [4, 1]"] ;
54 -> 58 ;
59 [label="hosp_yn_Unknown <= 0.5\ngini = 0.361\nsamples = 233\nvalue = [178, 55]"] ;
1 -> 59 ;
60 [label="medcond_yn_Yes <= 0.5\ngini = 0.249\nsamples = 110\nvalue = [94, 16]"] ;
59 -> 60 ;
61 [label="medcond_yn_Unknown <= 0.5\ngini = 0.199\nsamples = 89\nvalue = [79, 10]"] ;
60 -> 61 ;
62 [label="gini = 0.0\nsamples = 4\nvalue = [4, 0]"] ;
61 -> 62 ;
63 [label="gini = 0.208\nsamples = 85\nvalue = [75, 10]"] ;
61 -> 63 ;
64 [label="gini = 0.408\nsamples = 21\nvalue = [15, 6]"] ;
60 -> 64 ;
65 [label="icu_yn_Unknown <= 0.5\ngini = 0.433\nsamples = 123\nvalue = [84, 39]"] ;
59 -> 65 ;
66 [label="gini = 0.0\nsamples = 2\nvalue = [0, 2]"] ;
65 -> 66 ;
67 [label="medcond_yn_Unknown <= 0.5\ngini = 0.425\nsamples = 121\nvalue = [84, 37]"] ;
65 -> 67 ;
68 [label="medcond_yn_Yes <= 0.5\ngini = 0.494\nsamples = 18\nvalue = [10, 8]"] ;
67 -> 68 ;
69 [label="gini = 0.5\nsamples = 2\nvalue = [1, 1]"] ;
68 -> 69 ;
70 [label="gini = 0.492\nsamples = 16\nvalue = [9, 7]"] ;
68 -> 70 ;
71 [label="gini = 0.405\nsamples = 103\nvalue = [74, 29]"] ;
67 -> 71 ;
72 [label="age_group_80+ Years <= 0.5\ngini = 0.401\nsamples = 480\nvalue = [347, 133]"] ;
0 -> 72 [labeldistance=2.5, labelangle=-45, headlabel="False"] ;
73 [label="age_group_70 - 79 Years <= 0.5\ngini = 0.329\nsamples = 376\nvalue = [298, 78]"] ;
72 -> 73 ;
74 [label="icu_yn_Yes <= 0.5\ngini = 0.254\nsamples = 274\nvalue = [233, 41]"] ;
73 -> 74 ;
75 [label="age_group_60 - 69 Years <= 0.5\ngini = 0.218\nsamples = 249\nvalue = [218, 31]"] ;
74 -> 75 ;
76 [label="medcond_yn_Yes <= 0.5\ngini = 0.142\nsamples = 169\nvalue = [156, 13]"] ;
75 -> 76 ;
77 [label="age_group_50 - 59 Years <= 0.5\ngini = 0.107\nsamples = 141\nvalue = [133, 8]"] ;
76 -> 77 ;
78 [label="icu_yn_Unknown <= 0.5\ngini = 0.065\nsamples = 89\nvalue = [86, 3]"] ;
77 -> 78 ;
79 [label="gini = 0.0\nsamples = 19\nvalue = [19, 0]"] ;
78 -> 79 ;
80 [label="age_group_20 - 29 Years <= 0.5\ngini = 0.082\nsamples = 70\nvalue = [67, 3]"] ;
78 -> 80 ;
81 [label="age_group_30 - 39 Years <= 0.5\ngini = 0.068\nsamples = 57\nvalue = [55, 2]"] ;
80 -> 81 ;
82 [label="gini = 0.051\nsamples = 38\nvalue = [37, 1]"] ;
81 -> 82 ;
83 [label="gini = 0.1\nsamples = 19\nvalue = [18, 1]"] ;
81 -> 83 ;
84 [label="gini = 0.142\nsamples = 13\nvalue = [12, 1]"] ;
80 -> 84 ;
85 [label="icu_yn_Unknown <= 0.5\ngini = 0.174\nsamples = 52\nvalue = [47, 5]"] ;
77 -> 85 ;
86 [label="gini = 0.0\nsamples = 9\nvalue = [9, 0]"] ;
85 -> 86 ;
87 [label="gini = 0.206\nsamples = 43\nvalue = [38, 5]"] ;
85 -> 87 ;
88 [label="icu_yn_Unknown <= 0.5\ngini = 0.293\nsamples = 28\nvalue = [23, 5]"] ;
76 -> 88 ;
89 [label="age_group_50 - 59 Years <= 0.5\ngini = 0.117\nsamples = 16\nvalue = [15, 1]"] ;
88 -> 89 ;
90 [label="gini = 0.0\nsamples = 10\nvalue = [10, 0]"] ;
89 -> 90 ;
91 [label="gini = 0.278\nsamples = 6\nvalue = [5, 1]"] ;
89 -> 91 ;
92 [label="age_group_20 - 29 Years <= 0.5\ngini = 0.444\nsamples = 12\nvalue = [8, 4]"] ;
88 -> 92 ;
93 [label="age_group_30 - 39 Years <= 0.5\ngini = 0.48\nsamples = 10\nvalue = [6, 4]"] ;
92 -> 93 ;
94 [label="age_group_40 - 49 Years <= 0.5\ngini = 0.494\nsamples = 9\nvalue = [5, 4]"] ;
93 -> 94 ;
95 [label="gini = 0.5\nsamples = 4\nvalue = [2, 2]"] ;
94 -> 95 ;
96 [label="gini = 0.48\nsamples = 5\nvalue = [3, 2]"] ;
94 -> 96 ;
97 [label="gini = 0.0\nsamples = 1\nvalue = [1, 0]"] ;
93 -> 97 ;
98 [label="gini = 0.0\nsamples = 2\nvalue = [2, 0]"] ;
92 -> 98 ;
99 [label="icu_yn_Unknown <= 0.5\ngini = 0.349\nsamples = 80\nvalue = [62, 18]"] ;
75 -> 99 ;
100 [label="medcond_yn_Unknown <= 0.5\ngini = 0.198\nsamples = 18\nvalue = [16, 2]"] ;
99 -> 100 ;
101 [label="gini = 0.0\nsamples = 11\nvalue = [11, 0]"] ;
100 -> 101 ;
102 [label="gini = 0.408\nsamples = 7\nvalue = [5, 2]"] ;
100 -> 102 ;
103 [label="medcond_yn_Yes <= 0.5\ngini = 0.383\nsamples = 62\nvalue = [46, 16]"] ;
99 -> 103 ;
104 [label="medcond_yn_Unknown <= 0.5\ngini = 0.334\nsamples = 52\nvalue = [41, 11]"] ;
103 -> 104 ;
105 [label="gini = 0.0\nsamples = 1\nvalue = [1, 0]"] ;
104 -> 105 ;
106 [label="gini = 0.338\nsamples = 51\nvalue = [40, 11]"] ;
104 -> 106 ;
107 [label="gini = 0.5\nsamples = 10\nvalue = [5, 5]"] ;
103 -> 107 ;
108 [label="age_group_40 - 49 Years <= 0.5\ngini = 0.48\nsamples = 25\nvalue = [15, 10]"] ;
74 -> 108 ;
109 [label="age_group_10 - 19 Years <= 0.5\ngini = 0.491\nsamples = 23\nvalue = [13, 10]"] ;
108 -> 109 ;
110 [label="age_group_30 - 39 Years <= 0.5\ngini = 0.496\nsamples = 22\nvalue = [12, 10]"] ;
109 -> 110 ;
111 [label="age_group_50 - 59 Years <= 0.5\ngini = 0.488\nsamples = 19\nvalue = [11, 8]"] ;
110 -> 111 ;
112 [label="medcond_yn_Unknown <= 0.5\ngini = 0.496\nsamples = 11\nvalue = [6, 5]"] ;
111 -> 112 ;
113 [label="gini = 0.5\nsamples = 4\nvalue = [2, 2]"] ;
112 -> 113 ;
114 [label="age_group_20 - 29 Years <= 0.5\ngini = 0.49\nsamples = 7\nvalue = [4, 3]"] ;
112 -> 114 ;
115 [label="gini = 0.48\nsamples = 5\nvalue = [3, 2]"] ;
114 -> 115 ;
116 [label="gini = 0.5\nsamples = 2\nvalue = [1, 1]"] ;
114 -> 116 ;
117 [label="medcond_yn_Unknown <= 0.5\ngini = 0.469\nsamples = 8\nvalue = [5, 3]"] ;
111 -> 117 ;
118 [label="medcond_yn_Yes <= 0.5\ngini = 0.444\nsamples = 6\nvalue = [4, 2]"] ;
117 -> 118 ;
119 [label="gini = 0.0\nsamples = 1\nvalue = [1, 0]"] ;
118 -> 119 ;
120 [label="gini = 0.48\nsamples = 5\nvalue = [3, 2]"] ;
118 -> 120 ;
121 [label="gini = 0.5\nsamples = 2\nvalue = [1, 1]"] ;
117 -> 121 ;
122 [label="medcond_yn_Yes <= 0.5\ngini = 0.444\nsamples = 3\nvalue = [1, 2]"] ;
110 -> 122 ;
123 [label="gini = 0.5\nsamples = 2\nvalue = [1, 1]"] ;
122 -> 123 ;
124 [label="gini = 0.0\nsamples = 1\nvalue = [0, 1]"] ;
122 -> 124 ;
125 [label="gini = 0.0\nsamples = 1\nvalue = [1, 0]"] ;
109 -> 125 ;
126 [label="gini = 0.0\nsamples = 2\nvalue = [2, 0]"] ;
108 -> 126 ;
127 [label="icu_yn_Yes <= 0.5\ngini = 0.462\nsamples = 102\nvalue = [65, 37]"] ;
73 -> 127 ;
128 [label="icu_yn_Unknown <= 0.5\ngini = 0.437\nsamples = 90\nvalue = [61, 29]"] ;
127 -> 128 ;
129 [label="medcond_yn_Unknown <= 0.5\ngini = 0.172\nsamples = 21\nvalue = [19, 2]"] ;
128 -> 129 ;
130 [label="gini = 0.278\nsamples = 12\nvalue = [10, 2]"] ;
129 -> 130 ;
131 [label="gini = 0.0\nsamples = 9\nvalue = [9, 0]"] ;
129 -> 131 ;
132 [label="medcond_yn_Yes <= 0.5\ngini = 0.476\nsamples = 69\nvalue = [42, 27]"] ;
128 -> 132 ;
133 [label="medcond_yn_Unknown <= 0.5\ngini = 0.451\nsamples = 61\nvalue = [40, 21]"] ;
132 -> 133 ;
134 [label="gini = 0.5\nsamples = 2\nvalue = [1, 1]"] ;
133 -> 134 ;
135 [label="gini = 0.448\nsamples = 59\nvalue = [39, 20]"] ;
133 -> 135 ;
136 [label="gini = 0.375\nsamples = 8\nvalue = [2, 6]"] ;
132 -> 136 ;
137 [label="medcond_yn_Unknown <= 0.5\ngini = 0.444\nsamples = 12\nvalue = [4, 8]"] ;
127 -> 137 ;
138 [label="gini = 0.5\nsamples = 6\nvalue = [3, 3]"] ;
137 -> 138 ;
139 [label="gini = 0.278\nsamples = 6\nvalue = [1, 5]"] ;
137 -> 139 ;
140 [label="medcond_yn_Yes <= 0.5\ngini = 0.498\nsamples = 104\nvalue = [49, 55]"] ;
72 -> 140 ;
141 [label="icu_yn_Yes <= 0.5\ngini = 0.5\nsamples = 70\nvalue = [35, 35]"] ;
140 -> 141 ;
142 [label="icu_yn_Unknown <= 0.5\ngini = 0.5\nsamples = 69\nvalue = [35, 34]"] ;
141 -> 142 ;
143 [label="medcond_yn_Unknown <= 0.5\ngini = 0.469\nsamples = 8\nvalue = [5, 3]"] ;
142 -> 143 ;
144 [label="gini = 0.444\nsamples = 3\nvalue = [2, 1]"] ;
143 -> 144 ;
145 [label="gini = 0.48\nsamples = 5\nvalue = [3, 2]"] ;
143 -> 145 ;
146 [label="gini = 0.5\nsamples = 61\nvalue = [30, 31]"] ;
142 -> 146 ;
147 [label="gini = 0.0\nsamples = 1\nvalue = [0, 1]"] ;
141 -> 147 ;
148 [label="icu_yn_Unknown <= 0.5\ngini = 0.484\nsamples = 34\nvalue = [14, 20]"] ;
140 -> 148 ;
149 [label="icu_yn_Yes <= 0.5\ngini = 0.499\nsamples = 19\nvalue = [9, 10]"] ;
148 -> 149 ;
150 [label="gini = 0.5\nsamples = 10\nvalue = [5, 5]"] ;
149 -> 150 ;
151 [label="gini = 0.494\nsamples = 9\nvalue = [4, 5]"] ;
149 -> 151 ;
152 [label="gini = 0.444\nsamples = 15\nvalue = [5, 10]"] ;
148 -> 152 ;
}